digraph Tree {
node [shape=box, style="filled", color="black", fontname="helvetica"] ;
edge [fontname="helvetica"] ;
0 [label="ALLERGY  <= 1.5\ngini = 0.5\nsamples = 405\nvalue = [206, 199]", fillcolor="#fefbf8"] ;
1 [label="SWALLOWING DIFFICULTY <= 1.5\ngini = 0.4\nsamples = 268\nvalue = [74, 194]", fillcolor="#85c2ef"] ;
0 -> 1 [labeldistance=2.5, labelangle=45, headlabel="True"] ;
2 [label="COUGHING <= 1.5\ngini = 0.232\nsamples = 217\nvalue = [29, 188]", fillcolor="#58ace9"] ;
1 -> 2 ;
3 [label="PEER_PRESSURE <= 1.5\ngini = 0.121\nsamples = 185\nvalue = [12, 173]", fillcolor="#47a4e7"] ;
2 -> 3 ;
4 [label="CHRONIC DISEASE <= 1.5\ngini = 0.047\nsamples = 165\nvalue = [4, 161]", fillcolor="#3e9fe6"] ;
3 -> 4 ;
5 [label="GENDER_1 <= 0.5\ngini = 0.014\nsamples = 137\nvalue = [1, 136]", fillcolor="#3a9ee5"] ;
4 -> 5 ;
6 [label="gini = 0.0\nsamples = 113\nvalue = [0, 113]", fillcolor="#399de5"] ;
5 -> 6 ;
7 [label="SMOKING <= 1.5\ngini = 0.08\nsamples = 24\nvalue = [1, 23]", fillcolor="#42a1e6"] ;
5 -> 7 ;
8 [label="gini = 0.0\nsamples = 15\nvalue = [0, 15]", fillcolor="#399de5"] ;
7 -> 8 ;
9 [label="CHEST PAIN <= 1.5\ngini = 0.198\nsamples = 9\nvalue = [1, 8]", fillcolor="#52a9e8"] ;
7 -> 9 ;
10 [label="SHORTNESS OF BREATH <= 1.5\ngini = 0.375\nsamples = 4\nvalue = [1, 3]", fillcolor="#7bbeee"] ;
9 -> 10 ;
11 [label="AGE <= 61.5\ngini = 0.5\nsamples = 2\nvalue = [1, 1]", fillcolor="#ffffff"] ;
10 -> 11 ;
12 [label="gini = 0.0\nsamples = 1\nvalue = [1, 0]", fillcolor="#e58139"] ;
11 -> 12 ;
13 [label="gini = 0.0\nsamples = 1\nvalue = [0, 1]", fillcolor="#399de5"] ;
11 -> 13 ;
14 [label="gini = 0.0\nsamples = 2\nvalue = [0, 2]", fillcolor="#399de5"] ;
10 -> 14 ;
15 [label="gini = 0.0\nsamples = 5\nvalue = [0, 5]", fillcolor="#399de5"] ;
9 -> 15 ;
16 [label="ANXIETY <= 1.5\ngini = 0.191\nsamples = 28\nvalue = [3, 25]", fillcolor="#51a9e8"] ;
4 -> 16 ;
17 [label="AGE <= 60.5\ngini = 0.137\nsamples = 27\nvalue = [2, 25]", fillcolor="#49a5e7"] ;
16 -> 17 ;
18 [label="GENDER_0 <= 0.5\ngini = 0.408\nsamples = 7\nvalue = [2, 5]", fillcolor="#88c4ef"] ;
17 -> 18 ;
19 [label="gini = 0.0\nsamples = 4\nvalue = [0, 4]", fillcolor="#399de5"] ;
18 -> 19 ;
20 [label="AGE <= 59.5\ngini = 0.444\nsamples = 3\nvalue = [2, 1]", fillcolor="#f2c09c"] ;
18 -> 20 ;
21 [label="gini = 0.0\nsamples = 1\nvalue = [0, 1]", fillcolor="#399de5"] ;
20 -> 21 ;
22 [label="gini = 0.0\nsamples = 2\nvalue = [2, 0]", fillcolor="#e58139"] ;
20 -> 22 ;
23 [label="gini = 0.0\nsamples = 20\nvalue = [0, 20]", fillcolor="#399de5"] ;
17 -> 23 ;
24 [label="gini = 0.0\nsamples = 1\nvalue = [1, 0]", fillcolor="#e58139"] ;
16 -> 24 ;
25 [label="YELLOW_FINGERS <= 1.5\ngini = 0.48\nsamples = 20\nvalue = [8, 12]", fillcolor="#bddef6"] ;
3 -> 25 ;
26 [label="GENDER_0 <= 0.5\ngini = 0.165\nsamples = 11\nvalue = [1, 10]", fillcolor="#4da7e8"] ;
25 -> 26 ;
27 [label="gini = 0.0\nsamples = 10\nvalue = [0, 10]", fillcolor="#399de5"] ;
26 -> 27 ;
28 [label="gini = 0.0\nsamples = 1\nvalue = [1, 0]", fillcolor="#e58139"] ;
26 -> 28 ;
29 [label="ANXIETY <= 1.5\ngini = 0.346\nsamples = 9\nvalue = [7, 2]", fillcolor="#eca572"] ;
25 -> 29 ;
30 [label="gini = 0.0\nsamples = 2\nvalue = [0, 2]", fillcolor="#399de5"] ;
29 -> 30 ;
31 [label="gini = 0.0\nsamples = 7\nvalue = [7, 0]", fillcolor="#e58139"] ;
29 -> 31 ;
32 [label="CHEST PAIN <= 1.5\ngini = 0.498\nsamples = 32\nvalue = [17, 15]", fillcolor="#fcf0e8"] ;
2 -> 32 ;
33 [label="ALCOHOL CONSUMING <= 1.5\ngini = 0.434\nsamples = 22\nvalue = [7.0, 15.0]", fillcolor="#95cbf1"] ;
32 -> 33 ;
34 [label="PEER_PRESSURE <= 1.5\ngini = 0.278\nsamples = 18\nvalue = [3, 15]", fillcolor="#61b1ea"] ;
33 -> 34 ;
35 [label="AGE <= 53.0\ngini = 0.117\nsamples = 16\nvalue = [1, 15]", fillcolor="#46a4e7"] ;
34 -> 35 ;
36 [label="gini = 0.0\nsamples = 1\nvalue = [1, 0]", fillcolor="#e58139"] ;
35 -> 36 ;
37 [label="gini = 0.0\nsamples = 15\nvalue = [0, 15]", fillcolor="#399de5"] ;
35 -> 37 ;
38 [label="gini = 0.0\nsamples = 2\nvalue = [2, 0]", fillcolor="#e58139"] ;
34 -> 38 ;
39 [label="gini = 0.0\nsamples = 4\nvalue = [4, 0]", fillcolor="#e58139"] ;
33 -> 39 ;
40 [label="gini = 0.0\nsamples = 10\nvalue = [10, 0]", fillcolor="#e58139"] ;
32 -> 40 ;
41 [label="PEER_PRESSURE <= 1.5\ngini = 0.208\nsamples = 51\nvalue = [45, 6]", fillcolor="#e89253"] ;
1 -> 41 ;
42 [label="WHEEZING <= 1.5\ngini = 0.42\nsamples = 20\nvalue = [14, 6]", fillcolor="#f0b78e"] ;
41 -> 42 ;
43 [label="AGE <= 59.5\ngini = 0.408\nsamples = 7\nvalue = [2, 5]", fillcolor="#88c4ef"] ;
42 -> 43 ;
44 [label="gini = 0.0\nsamples = 4\nvalue = [0, 4]", fillcolor="#399de5"] ;
43 -> 44 ;
45 [label="GENDER_0 <= 0.5\ngini = 0.444\nsamples = 3\nvalue = [2, 1]", fillcolor="#f2c09c"] ;
43 -> 45 ;
46 [label="AGE <= 61.5\ngini = 0.5\nsamples = 2\nvalue = [1, 1]", fillcolor="#ffffff"] ;
45 -> 46 ;
47 [label="gini = 0.0\nsamples = 1\nvalue = [1, 0]", fillcolor="#e58139"] ;
46 -> 47 ;
48 [label="gini = 0.0\nsamples = 1\nvalue = [0, 1]", fillcolor="#399de5"] ;
46 -> 48 ;
49 [label="gini = 0.0\nsamples = 1\nvalue = [1, 0]", fillcolor="#e58139"] ;
45 -> 49 ;
50 [label="ANXIETY <= 1.5\ngini = 0.142\nsamples = 13\nvalue = [12, 1]", fillcolor="#e78c49"] ;
42 -> 50 ;
51 [label="gini = 0.0\nsamples = 1\nvalue = [0, 1]", fillcolor="#399de5"] ;
50 -> 51 ;
52 [label="gini = 0.0\nsamples = 12\nvalue = [12, 0]", fillcolor="#e58139"] ;
50 -> 52 ;
53 [label="gini = 0.0\nsamples = 31\nvalue = [31, 0]", fillcolor="#e58139"] ;
41 -> 53 ;
54 [label="AGE <= 29.5\ngini = 0.07\nsamples = 137\nvalue = [132, 5]", fillcolor="#e68640"] ;
0 -> 54 [labeldistance=2.5, labelangle=-45, headlabel="False"] ;
55 [label="gini = 0.0\nsamples = 1\nvalue = [0, 1]", fillcolor="#399de5"] ;
54 -> 55 ;
56 [label="PEER_PRESSURE <= 1.5\ngini = 0.057\nsamples = 136\nvalue = [132, 4]", fillcolor="#e6853f"] ;
54 -> 56 ;
57 [label="ALCOHOL CONSUMING <= 1.5\ngini = 0.105\nsamples = 72\nvalue = [68, 4]", fillcolor="#e78845"] ;
56 -> 57 ;
58 [label="YELLOW_FINGERS <= 1.5\ngini = 0.231\nsamples = 15\nvalue = [13, 2]", fillcolor="#e99457"] ;
57 -> 58 ;
59 [label="AGE <= 59.5\ngini = 0.48\nsamples = 5\nvalue = [3, 2]", fillcolor="#f6d5bd"] ;
58 -> 59 ;
60 [label="gini = 0.0\nsamples = 2\nvalue = [0, 2]", fillcolor="#399de5"] ;
59 -> 60 ;
61 [label="gini = 0.0\nsamples = 3\nvalue = [3, 0]", fillcolor="#e58139"] ;
59 -> 61 ;
62 [label="gini = 0.0\nsamples = 10\nvalue = [10, 0]", fillcolor="#e58139"] ;
58 -> 62 ;
63 [label="SHORTNESS OF BREATH <= 1.5\ngini = 0.068\nsamples = 57\nvalue = [55, 2]", fillcolor="#e68640"] ;
57 -> 63 ;
64 [label="CHRONIC DISEASE <= 1.5\ngini = 0.198\nsamples = 18\nvalue = [16, 2]", fillcolor="#e89152"] ;
63 -> 64 ;
65 [label="AGE <= 61.0\ngini = 0.346\nsamples = 9\nvalue = [7, 2]", fillcolor="#eca572"] ;
64 -> 65 ;
66 [label="gini = 0.0\nsamples = 5\nvalue = [5, 0]", fillcolor="#e58139"] ;
65 -> 66 ;
67 [label="AGE <= 69.5\ngini = 0.5\nsamples = 4\nvalue = [2, 2]", fillcolor="#ffffff"] ;
65 -> 67 ;
68 [label="AGE <= 66.5\ngini = 0.444\nsamples = 3\nvalue = [1, 2]", fillcolor="#9ccef2"] ;
67 -> 68 ;
69 [label="gini = 0.5\nsamples = 2\nvalue = [1, 1]", fillcolor="#ffffff"] ;
68 -> 69 ;
70 [label="gini = 0.0\nsamples = 1\nvalue = [0, 1]", fillcolor="#399de5"] ;
68 -> 70 ;
71 [label="gini = 0.0\nsamples = 1\nvalue = [1, 0]", fillcolor="#e58139"] ;
67 -> 71 ;
72 [label="gini = 0.0\nsamples = 9\nvalue = [9, 0]", fillcolor="#e58139"] ;
64 -> 72 ;
73 [label="gini = 0.0\nsamples = 39\nvalue = [39, 0]", fillcolor="#e58139"] ;
63 -> 73 ;
74 [label="gini = 0.0\nsamples = 64\nvalue = [64, 0]", fillcolor="#e58139"] ;
56 -> 74 ;
}